digraph Tree {
node [shape=box, style="rounded", color="black", fontname="helvetica"] ;
edge [fontname="helvetica"] ;
0 [label="temp_1 <= 57.5\nsquared_error = 132.7\nsamples = 164\nvalue = 61.7"] ;
1 [label="average <= 46.8\nsquared_error = 47.0\nsamples = 62\nvalue = 51.0"] ;
0 -> 1 [labeldistance=2.5, labelangle=45, headlabel="True"] ;
2 [label="temp_1 <= 46.5\nsquared_error = 34.2\nsamples = 16\nvalue = 42.1"] ;
1 -> 2 ;
3 [label="squared_error = 11.8\nsamples = 11\nvalue = 39.8"] ;
2 -> 3 ;
4 [label="squared_error = 44.5\nsamples = 5\nvalue = 47.7"] ;
2 -> 4 ;
5 [label="temp_1 <= 54.5\nsquared_error = 20.4\nsamples = 46\nvalue = 53.7"] ;
1 -> 5 ;
6 [label="squared_error = 11.2\nsamples = 32\nvalue = 51.5"] ;
5 -> 6 ;
7 [label="squared_error = 12.0\nsamples = 14\nvalue = 57.9"] ;
5 -> 7 ;
8 [label="temp_1 <= 66.5\nsquared_error = 62.6\nsamples = 102\nvalue = 68.8"] ;
0 -> 8 [labeldistance=2.5, labelangle=-45, headlabel="False"] ;
9 [label="friend <= 42.0\nsquared_error = 15.6\nsamples = 41\nvalue = 62.0"] ;
8 -> 9 ;
10 [label="squared_error = 9.0\nsamples = 11\nvalue = 58.1"] ;
9 -> 10 ;
11 [label="squared_error = 11.6\nsamples = 30\nvalue = 63.2"] ;
9 -> 11 ;
12 [label="forecast_under <= 76.5\nsquared_error = 45.2\nsamples = 61\nvalue = 73.1"] ;
8 -> 12 ;
13 [label="squared_error = 34.8\nsamples = 48\nvalue = 71.6"] ;
12 -> 13 ;
14 [label="squared_error = 43.4\nsamples = 13\nvalue = 79.0"] ;
12 -> 14 ;
}